-6.949434946994664797e-02 1.800100805418040906e-02 3.342700472400571884e-03 -2.507955525470644681e-02 -3.177524704307851944e-02 6.113420357942525064e-03 6.846673075228867575e-03 1.809586063159369582e-02 -6.625869546863771657e-03 -1.687119692674239743e-03 1.213367604588701520e-01 -2.786214758900878649e-02 -3.985733446956347265e-02 -3.600581319871492408e-02 3.451397629509382701e-04 3.333731240545187869e-03 1.497915432642964173e-02 -5.026144663480967183e-04 1.096429541292420502e-04 1.429104075119771999e-01 -6.697687421702845645e-02 4.876623688911853197e-04 -3.982275444000015624e-02 -1.369673648105864186e-03 -2.355199667478577452e-02 4.270543600536844120e-02 2.050862680489639982e-03 -1.225743281111428247e-03 7.402005735139433051e-02 -2.110139278070060076e-01 -2.099211187755828101e-01 -3.435026772119106897e-01 -3.775636458031628728e-01 -3.232769211231771300e-01 4.917465645100456417e-02 -4.727860237126275608e-03 -4.467784010025611235e-03 5.331609234402522046e-02 -3.183285297347641235e-02 -4.221810249358202288e-02 -1.118156423180999143e-01 -3.351682144083449610e-02 -3.476163693442164276e-02 1.796088449765738393e-02 -3.570681628665878064e-03 -1.620442577987120337e-04 6.904933576445086707e-02 -1.505533606141653234e-02 -2.799363187288476940e-02 -3.999676768350322875e-02 -3.286777101650917993e-02 -1.776654111956657177e-03 4.942186216548472011e-02 -2.152556152068539532e-03 -5.454645274061724856e-03 3.101281951673292431e-02 6.799039344452695310e-03 3.388709456930408259e-02 -2.778400797487290061e-03 6.369454254816522137e-03 3.187833838262617986e-02 2.785848561883417021e-02 -3.998659198782470413e-03 1.699506978308551724e-03 -2.304019864938824588e-03 -2.009825743014607112e-04 -1.583191156437598404e-03 2.948679387051002850e-04 1.439865558150412199e-03 4.444660083145614976e-03 2.031928401400586934e-03 5.120646595362697909e-03 1.327930743185127540e-03 -4.053666079585375656e-03 -2.427680412281990434e-03 -4.314185490873927772e-04 4.893294809345428639e-03 9.641785196838146416e-04 1.134202301534473071e-04 -3.664914191033522787e-03 -2.283667237524753847e-03 -3.444616045334364905e-03 2.856502266439189417e-04 -9.556766275826804324e-02 8.510010812578182315e-02 -4.291355760879968229e-02 6.492704250333455884e-02 5.779173567482685792e-02 -3.914270392708357749e-02 4.164740039905167474e-02 3.236029895204152462e-02 -1.025473898474539014e-01 3.776719424220886800e-02 -7.804936242742244179e-02 -3.733658890278642589e-02 -1.921315235047097933e-02 -3.059908741100378707e-02 -1.919839396732979375e-02 -1.612471157575484995e-02 5.068415505556084569e-03 1.831593317144490987e-02 -4.009723603546526405e-02 -3.187006833114108123e-02 -5.135675327012540620e-02 -1.454055155583058000e-02 -1.376186778087323814e-02 -2.715918012687043581e-02 -2.260097458064157239e-02 4.366473266271368031e-02 9.628202687789395864e-02 3.239715756084821791e-02 -2.706764580011637722e-02 -3.908652390622654321e-02 -3.462993304178118431e-02 -1.453374871125892240e-02 -2.995048022894084699e-02 -1.245714773047445871e-02 -4.574630901933550951e-03 1.299971415404287123e-02 2.586349712622258712e-02 -3.375047239608832544e-02 -2.939035128144907791e-02 -4.063265742534497016e-02 -4.098012208428171432e-02 -3.003075570794125695e-02 -3.409870507731116440e-02 2.603424693893363617e-02 1.239733600246360409e-02 -4.652942134703327674e-03 -1.303192641999804773e-02 -3.055951744156083089e-02 -1.449655897063344134e-02 -3.489526873383413247e-02 -3.855364232631225407e-02 -2.716187975351668296e-02 3.194290443509124888e-02 9.654342788401602815e-02 4.327034775440805753e-02 -2.211513044812664017e-02 -2.685509424828121453e-02 -1.432173152361339817e-02 -1.442291150938535341e-02 -5.072072315769487333e-02 -3.167272206656240874e-02 -3.960382025720437377e-02 1.850576034669386069e-02 5.522636703573464284e-03 -1.575238236427065758e-02 -1.978573323237720408e-02 -3.044922881718772553e-02 -1.915677482537469015e-02 -3.817735112310578077e-02 -7.725693905417155283e-02 3.731708854691738464e-02 -1.024622052573835873e-01 3.189819939946195171e-02 4.170115101609863512e-02 -3.954744439334417772e-02 5.792407182273243832e-02 6.568228513527339663e-02 -4.315170335877683422e-02 8.533924132473290347e-02 -9.575654435834796141e-02
-5.215597090517913245e-03 -5.657532194065750808e-02 -6.243448498591862295e-02 -1.186521987538136785e-01 5.021458314494599978e-02 -6.423846483888884240e-02 -6.101815092566961751e-02 -5.997683356905605251e-02 8.312466223764161406e-04 4.759074783036051871e-04 -2.095666131757518286e-02 -5.230725907867234820e-02 1.101644749013054730e-01 1.101910087309989350e-01 1.299089380886963262e-03 8.650101507403715065e-04 -3.424232586642705911e-02 2.343237310309277590e-03 3.637059729341144548e-03 -1.801974496430729447e-02 5.940763052370368058e-02 -1.574690126425677716e-04 1.103340172968212268e-01 -1.341824911917355843e-05 -2.765414494313073873e-02 -1.078392094411595101e-02 8.789050480713289561e-04 1.194734108260210289e-03 3.773843749180055135e-02 -1.056443745386608998e-02 -1.233407876778966177e-02 8.867744436634814043e-02 -1.101546702673613515e-01 -2.566706505464559987e-02 -3.185236342804755039e-02 -5.540245949122313144e-04 3.391425755158995661e-03 -4.825982292767812959e-02 -5.271377061009919346e-02 -5.795178467453688392e-02 2.462673074452875407e-02 -5.317492942828883767e-02 -5.266910511230163405e-02 -8.730512815477643740e-02 8.948136392511744008e-04 1.158073210843233196e-03 3.737739437322102481e-03 -7.032822858999795979e-03 -2.894692624819859145e-02 1.114434374112398679e-01 -5.609619144438922345e-02 1.242794417699349583e-04 -3.148602052666486795e-02 1.354330579115710842e-03 4.867086981990653358e-03 -3.367218996434942491e-02 -6.487069828532918137e-02 -3.418880628915522274e-02 7.873684593967582301e-02 -8.901207171850207545e-02 -3.318955873129749573e-02 -3.742961002738307008e-02 2.637864361294017888e-03 3.154943508218800274e-03 -3.828500187715581666e-03 7.306992922052827754e-04 1.531688174492316229e-03 1.759763577617556125e-03 -4.761008467043684276e-04 2.432096869089681208e-03 -1.586453176087242048e-03 2.433375383735007086e-03 1.536889852563048204e-03 3.597331520159862718e-04 1.776766273213201347e-03 2.882510553353122892e-03 3.305771506582803692e-04 -1.193034012775286406e-03 -7.555448348654164386e-05 -2.719304760211973745e-03 6.426859844019920404e-04 6.580973182366244012e-04 4.375193784408571123e-05 -1.864728597689323253e-02 -4.447728571906034434e-02 -7.794848472967884356e-02 -4.692980099302230396e-02 -3.860599637421621710e-02 -5.233904594891141543e-02 -2.959438387288585923e-02 -2.206700211808828790e-02 4.548008078100378854e-02 -1.958346153138350310e-02 2.719680855752763457e-02 -2.225956925637392870e-04 -2.861606799700079640e-03 -1.397200538920062574e-02 -2.237499695038402264e-02 1.650236296134738496e-03 4.758200847579847209e-03 3.751910359162929920e-02 -4.010785019634259541e-02 9.469130688341596477e-03 9.202693730763621127e-03 -1.048325955801380875e-03 -1.719149010253882837e-02 6.063145754296867841e-03 -3.720625063217563970e-03 1.199658150302082386e-02 5.289448448849210643e-02 3.866037071552855774e-03 -2.780234310443704601e-02 2.412676289558609785e-02 3.037149361763821862e-03 1.797128904387789577e-02 -2.722339496424315899e-02 -2.300509097971029353e-03 3.853979792350346791e-03 6.238539735208880471e-02 -5.239362802195906069e-03 -1.232974266116229622e-02 -5.821122034871713778e-03 1.366213245783141732e-02 1.368038975091700332e-02 -5.899479216435193560e-03 -1.265778866874447961e-02 -5.152209680926991484e-03 6.266300916915419628e-02 4.205431531293243701e-03 -2.683029479480459212e-03 -2.719636198267108909e-02 1.790005966466431259e-02 2.716147924525123044e-03 2.328170231644810170e-02 -2.821194260919417801e-02 3.640048797390948304e-03 5.362477732211288345e-02 1.201073786177229465e-02 -4.065417078159585564e-03 6.363344787295908099e-03 -1.669028820830084289e-02 -3.875102117648260877e-04 9.545389118529517408e-03 1.034543532969897824e-02 -4.003747976732374009e-02 3.785639214393898833e-02 4.575626327183391663e-03 1.715824680917488968e-03 -2.304993849377598436e-02 -1.419353938384153475e-02 -2.439733301575069090e-03 -4.330871381810666009e-04 2.692004557058636990e-02 -1.999153543258617993e-02 4.533597122726083090e-02 -2.195935355663262631e-02 -3.011339699350200697e-02 -5.221975921618021016e-02 -3.888214304969880852e-02 -4.746904421097793147e-02 -7.726863709476991526e-02 -4.378149118070888413e-02 -1.856190402902203884e-02
-7.198518285704647024e-02 -1.843964274752463439e-01 5.128807072774146068e-03 -3.330064425154501129e-02 -2.956706245913081829e-02 6.468365319274451720e-03 8.776149074043034307e-03 -1.794702120416467039e-01 1.819686001340977289e-03 -1.268002061851797833e-03 1.479558984017933232e-01 -3.348284106271025989e-02 -3.519254072137544681e-02 -3.729334038064211626e-02 1.356906332473012400e-03 -4.163565550413807453e-04 -8.161055124936620470e-03 -1.113813330356106792e-03 -1.346309747497378192e-03 -3.724934037176607510e-02 -6.977367928165160993e-02 1.026059257636359684e-03 -3.425705166298845250e-02 3.966828053232064957e-03 -4.614156902061394838e-02 3.932358996096330800e-02 -4.283181412204607741e-03 -1.760170817805358076e-03 -1.025308973161994514e-01 -2.387171702818562460e-02 -2.376643136962505384e-02 -1.509596238272225832e-01 -1.332748351352574905e-02 6.841477052775205014e-02 -1.278534635765763428e-01 -2.966030281394780883e-03 -5.574204843076655718e-04 -8.749604895302104390e-02 -3.892225602279465735e-02 1.472196155651384619e-01 7.056161848911106371e-02 -3.602878567814503386e-02 -3.923641638486972949e-02 -1.733097840413812818e-01 -7.901173846032354467e-04 1.405231426588428052e-03 1.369797667800516372e-01 1.878921859448015319e-01 -4.799050250555179919e-02 -3.838389109635280405e-02 -3.509523676782715096e-02 -1.259352125934103247e-03 -1.380492350670325663e-01 -1.929910196356942709e-04 -2.802089783741154669e-03 5.293641700148297297e-02 7.493917396481971499e-03 4.933116202799436162e-02 1.854894558885194014e-02 1.472328864706914583e-02 5.604717662433551101e-02 5.456981905488902246e-02 -2.351209176379774439e-03 -1.081687567407620034e-03 2.298732806802034848e-03 1.694742295397919291e-04 2.662281022842513754e-03 3.133973382114519680e-03 2.275032712443797336e-04 -3.593592210922418582e-04 2.089400121474066421e-03 3.138923382475019598e-03 1.806458038841804274e-03 1.942609210810642469e-03 4.198285719321788825e-04 2.757969601034334153e-03 -1.784657955547047561e-03 8.756294977739511286e-04 -5.739655177674513747e-03 -4.137527052868644251e-04 9.914060465564655117e-04 -1.678836815205121897e-03 -2.182239891867313606e-04 -5.240224424434745953e-02 -1.402848647112315758e-02 -1.125500299986902791e-02 -5.049939285051238506e-03 -1.432889598265564904e-02 9.148706882856823611e-03 2.251774760565906225e-02 -3.124579159637093373e-02 -2.925304377892227331e-02 -3.085081884137576280e-02 7.931452667965763204e-02 5.438201510929421140e-02 3.607010694489528463e-02 4.315932576775196455e-02 -2.945458166380825193e-02 1.296440078046405542e-02 -2.094586469756736999e-02 -3.742361959281021583e-02 -4.905051675223394414e-02 -4.775173241378884159e-02 -9.850034881051458052e-03 6.754227114154373601e-02 8.563341861333036500e-03 6.552393808757978055e-02 1.446470784721110014e-02 -3.094628438248642893e-02 -7.635002181924657738e-02 -4.531691454308202360e-02 1.580977959076574138e-02 -5.221414907022654123e-02 -4.183316195801015103e-02 6.273338119066801171e-04 -1.612701192064517133e-02 1.950196368108314190e-02 -1.000679328643085120e-02 -7.372344141971215459e-02 -2.727350479728393381e-02 1.105539156345754746e-02 -9.530088184685295630e-03 -9.642585792112839255e-03 -9.910020302666697548e-03 -9.870568797908759601e-03 1.123771039739673849e-02 -2.661891705081453896e-02 -7.385069239180673539e-02 -1.002415733819104170e-02 1.925156845636486619e-02 -1.672400136156769468e-02 2.625437990043086897e-04 -4.171801842388279946e-02 -5.154569983424252960e-02 1.626595200317266024e-02 -4.520201520880374330e-02 -7.612788649314702893e-02 -3.057182411211424589e-02 1.468166206341537348e-02 6.606586064143928072e-02 9.042415461018046482e-03 6.826849924449612805e-02 -9.849940605604335514e-03 -4.751159447834103072e-02 -4.882723067015695001e-02 -3.718978446500974255e-02 -2.100922810879422148e-02 1.323772916758161194e-02 -2.907008991955060268e-02 4.327231017740796465e-02 3.560121182410654062e-02 5.461205327555600925e-02 7.976181172329785407e-02 -3.064064764836637103e-02 -2.941388309478405738e-02 -3.164141255752612319e-02 2.213384930895560473e-02 9.212045613134364763e-03 -1.361658122544812458e-02 -5.430283002797657230e-03 -1.158655076086094818e-02 -1.484817568228452740e-02 -5.279607188600882878e-02
-3.298975140152762831e-02 6.466290409421236729e-02 -1.057906482162262324e-02 -6.953628968157460344e-03 -4.002036985906576305e-02 -1.599011469669914601e-02 -1.602357581060049468e-02 6.204643232192418034e-02 9.182484510724126924e-04 -2.886547345844390176e-04 -4.170099168263479150e-01 9.646924097606424109e-03 -2.286315871349496598e-02 -2.347424472283737504e-02 -1.043843992462938682e-03 -4.040944392181655513e-04 3.733625361182518754e-02 8.089872423849724971e-04 5.864251337618797515e-03 -3.454147177802066593e-01 -1.430785138255221897e-02 -4.198511608767285103e-03 -2.375606833137595963e-02 -2.704772373443078363e-03 -5.107770259482537906e-02 8.471168432175933682e-02 -1.476180217876934273e-03 -3.439869553945016506e-03 -3.658620162018791921e-01 -2.756839963977826824e-01 -2.751540503356822431e-01 1.693291727871486796e-01 6.898696694847469835e-02 1.171777820745706772e-01 1.198695977993612244e-01 1.805553751923344007e-03 -1.698192781372198775e-03 -1.829588785698311668e-02 5.452982784945400660e-03 -7.423310617881960505e-02 -1.462029634293758873e-01 3.014578122216324263e-03 5.238286245063493787e-03 1.318166532333266416e-01 2.113107406777400311e-03 -1.585681993936833255e-03 -1.032524458352269275e-01 -7.215130977912130594e-02 -5.467407289128148329e-02 -2.769356771407538095e-02 2.764656299233593083e-03 -7.833002084690355573e-04 1.240506384787807836e-01 4.116858098059374897e-04 -1.943939465651050268e-03 4.231488604368408013e-02 -1.337710693149105415e-02 3.725220197621525314e-02 1.394567133755910196e-02 4.626603596465523466e-02 4.595993239558392174e-02 4.340932340742914564e-02 1.347384811677931329e-04 -4.446989880190283656e-03 -2.676698059385990407e-03 -3.722646098800615720e-04 -4.084674161320549256e-06 -3.488242815566123221e-03 4.843429015411364683e-03 1.648153469322768928e-04 -2.350130785131878536e-03 5.485185288315745471e-03 1.972625650559139097e-03 -1.390279413027225989e-04 3.646235045830094768e-03 3.782211302238163049e-03 -1.257770502474503047e-03 4.285863967725096562e-04 1.188678332513335963e-03 -3.615920052728425257e-03 1.783740383344521079e-03 -4.058290696565225626e-03 -4.382339603229702370e-04 -5.713076634889913130e-02 -5.911881177975141649e-02 3.264433203200651362e-03 -2.244895918624905534e-02 -2.315681731797289422e-02 -7.726839720499503045e-03 -7.009441127101902203e-02 3.552173136931651570e-02 6.570331098256557145e-02 -2.377042136668140737e-02 -5.920331502634728488e-02 -1.622088770950578726e-02 9.681608667129061596e-03 8.372010691597821588e-03 1.491767742781792763e-02 1.389223802391064896e-02 -6.699769016074337558e-02 -3.695786334845573007e-02 -5.971316918795543070e-03 -3.340063785333644009e-02 -4.521082931792484716e-02 -4.239921897824380781e-02 -2.059049528339209137e-02 -3.912169644030393661e-02 -4.191858576099752320e-02 -2.457521152662088884e-02 -3.204806131082536813e-02 -3.354841557609412883e-02 -5.342468456022835682e-02 -2.619585863689994146e-02 -4.341175882584461659e-02 -1.911890308814021000e-02 7.666663491416138461e-03 -3.301745455286903691e-02 1.477077028538998846e-02 2.052135141463900386e-02 -3.457003948873984406e-02 -6.621853720112890786e-03 -2.355281251001378404e-02 -4.426380576775915121e-02 -4.519429908903074139e-02 -2.387974205292938551e-02 -6.657295240140685688e-03 -3.370396003169686544e-02 2.130270201332187460e-02 1.514594616151231435e-02 -3.316997337215118330e-02 7.568057294465787253e-03 -1.904141340459593323e-02 -4.396015227220231858e-02 -2.610974701864021003e-02 -5.350910716525252020e-02 -3.362573564174951846e-02 -3.165120821142577978e-02 -2.464721413707363085e-02 -4.123970290803803673e-02 -3.941341766890794907e-02 -2.037297147093556152e-02 -4.235474545604743513e-02 -4.530781428862822036e-02 -3.315423783555929843e-02 -5.999866720933367224e-03 -3.691489556967290919e-02 -6.675307127123461526e-02 1.385749748104324330e-02 1.435697715394341871e-02 8.171282261783780615e-03 9.793534258429758069e-03 -1.686932272777194944e-02 -5.990596099094243343e-02 -2.390013633097250872e-02 6.555386546507026291e-02 3.510415611803529429e-02 -7.087785992179292116e-02 -7.396120559005323752e-03 -2.248979349891199603e-02 -2.232078440126153071e-02 3.456751949506784057e-03 -5.828959640328336411e-02 -5.731677385656853280e-02
-4.527547341005046938e-02 -5.905510259803001955e-02 -8.214071497171970826e-02 3.117712719065584420e-02 -1.554207422486288126e-01 -8.172528772095098704e-02 -8.403555543964463803e-02 -5.775316029378846361e-02 -1.346057899889107354e-03 1.337595390034972652e-03 -4.500176263564630019e-02 1.121794930558739495e-01 -6.851582381711088243e-02 -7.288459310378275768e-02 1.864184704541994256e-03 -4.955858495052532439e-04 -2.469129638331369475e-02 -5.430446191276278685e-04 2.503689027099935925e-03 -1.668575074294143673e-02 4.108803578975230714e-02 -1.854410133602025839e-03 -7.199870099745470098e-02 2.638827745074305044e-03 -4.059043596731954501e-02 1.290127750465807320e-02 -6.982253591087017770e-04 -8.656289421107969412e-04 2.209502769631013427e-02 1.082552469071237011e-03 -2.873522648609324443e-04 -6.746892616009038390e-02 4.864336800847458148e-02 -2.201618271028069757e-02 -1.817280776297505729e-02 -5.509448501278431647e-04 6.107726343674403993e-04 8.247793302493496015e-02 1.107602327777532369e-01 8.395860169402823148e-02 -2.230768155682710460e-02 1.095562018506534285e-01 1.149710210285810469e-01 9.637476029839195379e-02 -2.733231789232338366e-03 -1.882637617435864311e-03 -5.634483670023354013e-02 -2.281257167608522970e-02 -3.748282448922478360e-02 -7.436683068350245784e-02 1.130135527461945399e-01 -9.696175154342087524e-05 -1.604767765886990979e-02 -2.992853224954810087e-05 1.604966527542977606e-03 -4.150687604754584037e-02 -8.020937568425069719e-02 -4.224306933022475147e-02 -1.154771651150176270e-01 7.154698577919851865e-02 -4.279277789307536078e-02 -4.259701002900150718e-02 7.065886353921796989e-05 -5.222866855353566241e-04 3.668784250703120611e-03 -1.441835254612997171e-03 -3.540042358730292730e-04 1.517737974594315529e-03 1.734700617295854017e-03 2.658792177462997088e-03 7.029899472733231510e-04 1.966894033999687895e-03 -7.185311427903505162e-04 2.398694118212081876e-03 -4.502989220832884850e-04 1.463518824688739414e-03 -3.881226489471543907e-04 5.131807742599408563e-03 7.220248198915694970e-04 2.765382507458317811e-03 1.747498872795848505e-03 -9.099919594836435466e-04 3.557521235796326162e-04 4.489266523074138260e-02 -3.146684721168563955e-03 -1.670150417496564510e-02 1.311284403750610610e-02 1.772011862155566759e-03 -2.221016734608985063e-02 -3.024903140130543247e-03 2.782841780596394254e-02 -3.931215551407184899e-02 -1.842698431077064228e-02 -5.175094938643810816e-02 -4.465190935902047659e-03 -9.746879354661832848e-03 1.779753513981613064e-02 2.347670594971217398e-02 -1.065386999470189187e-02 -1.647668019305329259e-02 -3.234579495097841123e-02 5.546362168194546999e-02 -3.427529234530162644e-02 -3.174083921813889569e-02 1.867859596790269147e-04 2.439247135630866897e-02 -1.596135458493217266e-02 -3.091314490274282931e-03 -5.752310540964436503e-03 -3.226471744941297043e-02 -5.171079329461043816e-03 2.876316086060297372e-02 -5.430543665639066264e-02 -2.548976237314265481e-02 -1.783290700925571973e-02 3.803595035630859961e-02 -3.861460242008442519e-03 -1.876067275273495113e-03 -2.811269580087154621e-02 7.233720848942077133e-03 1.260377251998429787e-02 2.088006743883560196e-02 -4.569939633073748231e-02 -4.605633689637782940e-02 2.113344973845203076e-02 1.261815802638185588e-02 7.314534623638117850e-03 -2.889962590273506202e-02 -2.182272455352064940e-03 -3.641118661503579389e-03 3.894421528056302151e-02 -1.744299865621426124e-02 -2.503389031876635668e-02 -5.374413423973834619e-02 2.861134036518969692e-02 -5.301399334374097029e-03 -3.208671998937622644e-02 -5.612367060691741613e-03 -3.006363360257272108e-03 -1.606449196859606118e-02 2.394215934134679563e-02 4.204240265707898648e-05 -3.223094620414559963e-02 -3.384775256466115295e-02 5.463005603874740435e-02 -3.265043374583143782e-02 -1.569613331099901574e-02 -1.084041132785053263e-02 2.291909175062224052e-02 1.702521312456451927e-02 -9.849917042539216641e-03 -4.269327876258849179e-03 -5.114284650275763983e-02 -1.823878846611353202e-02 -3.894005442397783373e-02 2.713934994671992479e-02 -2.447764546254636853e-03 -2.253260860284935982e-02 1.918522020628897224e-03 1.258916789547516457e-02 -1.635062375470468926e-02 -2.801838528817836380e-03 4.445742446442475099e-02
-2.620988254585640553e-02 -1.072498041599118275e-02 2.358457314708341246e-02 1.475115184698903674e-02 -6.832440349267486848e-03 2.432576276435810536e-02 2.796783068789774826e-02 -1.145621846080812148e-02 -1.223790822762499180e-03 1.709550846143252038e-03 1.753451990037165620e-01 -1.606440587823266750e-02 -2.615981262110451608e-02 -3.293334177888179726e-02 -4.961634848377577747e-03 -6.971916354679505261e-03 -3.613051634603531292e-01 8.074435451696584248e-03 -4.696732477521255514e-03 1.344093483767163089e-01 -4.819314055965857185e-02 1.213986218181410236e-03 -3.867282578409818317e-02 -2.343253010905912027e-03 -2.635472985509935279e-02 -3.452128243788686324e-01 -2.946167366430995325e-03 -6.993433263197862230e-03 7.889155912768376633e-02 3.472485822651961984e-02 2.498791762251147131e-02 -1.135520683315406759e-01 -8.815511761467553775e-02 -5.179591412857935395e-02 5.653930267894164037e-03 -9.062366026351305337e-03 -8.403176642194637794e-03 -3.509018244075899906e-01 -1.553819467106160729e-02 3.094379739991373612e-02 -3.477370406173802692e-02 -1.632429106696569113e-02 -2.025889984629357030e-02 6.142799044419033558e-03 -7.479715660767775193e-03 1.066711183202343795e-02 -2.886048141425772151e-01 3.202967399676522747e-02 -2.053799143736997901e-02 -3.262606453932474782e-02 -1.591721486140633066e-02 -1.791355620090606367e-03 1.346524369318726801e-02 -4.813758930249395322e-03 2.585316266242393413e-03 4.540728165533411409e-02 1.957020923148211980e-02 4.074639764588329494e-02 2.138675966705550976e-02 3.773014532506722279e-02 3.491670816539232947e-02 5.201430524717139126e-02 1.053089992363173341e-02 2.090274008916347299e-03 -5.404337773186993106e-04 -2.540997985068090600e-03 1.551742302158993191e-03 -1.498876706950997206e-03 1.881374772191084623e-03 -3.105354472270791758e-03 -4.869358572094487948e-04 -2.407205742109539120e-03 2.503039565810348532e-03 1.248421407639494418e-03 1.231215958851908376e-03 5.895656582311048326e-03 -8.314945919419145653e-03 6.112168992536524612e-03 -7.669861692999771323e-04 1.400688508374104508e-03 2.168212335020458514e-03 -8.125992159699692990e-03 3.665488942610440823e-04 -1.154182758621850741e-01 -1.375442753316034709e-02 8.288187136463329163e-03 8.428689548860871308e-03 3.666565137857305968e-03 -7.428146859956980680e-03 6.348179269913444001e-02 5.860623079824241882e-02 -5.749663762304457748e-02 -7.500488093735778287e-03 -3.159032615625666229e-02 -3.556575519627216964e-02 -7.735886271844294448e-03 -9.290936491418119378e-03 2.013059545483807458e-02 -3.070054709869739565e-02 9.013121721104900099e-05 -6.452727533213850619e-02 4.794399384965625927e-02 1.189021529106598293e-02 -3.986788298895321825e-02 1.056348897847557422e-02 -3.934312548998066331e-03 -2.136410687504535291e-02 -1.988759348941831692e-02 -6.512957404601904532e-02 -7.615107894098570307e-02 -7.144086864718483809e-02 -2.683844272216173721e-02 -1.222823976760473164e-02 -2.448513436418376515e-02 -7.689547492825894379e-03 -2.581396367889026572e-02 4.601098617920182376e-02 6.699797080279878969e-02 -8.329139150304065708e-02 4.852502729192829348e-05 -3.129072638882401947e-02 -4.149434473154284438e-03 -2.355972394037794335e-02 -2.317279742078533905e-02 -4.172344964682106472e-03 -3.143309146427901435e-02 -6.086393976577157954e-05 -8.364617697766339732e-02 6.691852568843403848e-02 4.660865931774890725e-02 -2.530311450828304567e-02 -7.686030301959686367e-03 -2.414694051932900903e-02 -1.307793693829169789e-02 -2.733124260479764811e-02 -7.108042716422775797e-02 -7.583710880668100007e-02 -6.494851204257259814e-02 -1.948535401077983523e-02 -2.095218202979154398e-02 -3.220909662285347322e-03 1.060471367879143624e-02 -4.006510738993401127e-02 1.188285927313548034e-02 4.822051040869507893e-02 -6.484900599454185288e-02 -7.453374121365752161e-05 -3.088222242945598550e-02 2.004634670209577002e-02 -9.034732407338385424e-03 -7.566550588527558296e-03 -3.517844796635537230e-02 -3.169192916068350879e-02 -7.733891471762961711e-03 -5.752974829073557311e-02 5.838895851994126834e-02 6.295723119156371173e-02 -8.128880278728477585e-03 3.511596175609884782e-03 7.666184985072043399e-03 8.431701447373454034e-03 -1.312762950513891337e-02 -1.152435639691835462e-01
-6.577133723145300870e-02 9.718102051927572649e-03 1.266703454193745040e-02 -2.786181826939616510e-02 -1.421197462599938129e-02 8.481886046836285831e-03 1.483992667920602283e-02 7.106004205573949323e-03 2.964669267943015503e-03 -6.022709722619826178e-03 -5.764970646136157589e-02 -3.698051977233633020e-02 -3.092135070961292767e-02 -2.799321488964647692e-02 -3.676536356418101843e-03 2.706765390519378853e-03 -3.897203533689563848e-01 9.773212807384037970e-03 6.436476345628935197e-03 -5.923016375750387447e-02 -7.903525092780018524e-02 -5.430036812785430170e-03 -3.064329832516948793e-02 4.747320593700542039e-03 1.829389904868147440e-02 -4.010799819200340233e-01 5.529852249756230431e-05 -4.553984038422080258e-03 -1.296634125409294735e-01 1.135288621064970555e-02 1.100914139183350494e-02 5.580112075011731815e-02 6.023327327601417369e-02 8.750279626375719044e-02 3.380338346194170429e-04 -5.224391086260587319e-03 -4.993948715646584317e-03 3.681337999741702838e-01 -4.162096203404202360e-02 -3.508217070306416524e-02 -5.751464133129184642e-02 -3.795097334294531694e-02 -3.236274984601508059e-02 -3.935718945105234207e-02 4.045050316852974968e-03 -7.376503094583686769e-03 4.137141226131935134e-01 -4.844444764640944688e-04 1.796522236013062615e-02 -3.557550931878570438e-02 -4.903648930223589858e-02 6.887827851219515893e-03 -4.997146564170130804e-03 -4.959813977677324064e-03 -5.761252291180255815e-03 2.745212087502476965e-03 1.535487273177323954e-02 -4.875312309206411912e-03 -4.112854986298358773e-02 -5.184690792042666307e-02 1.903775013339803132e-03 -6.246559104127077239e-03 6.003993635854821924e-04 6.282224196034229963e-03 -6.290065435977729028e-04 -3.215937307520125559e-03 -5.837156661002988918e-03 1.651367292107329583e-03 -2.573628708869339643e-03 -5.682778399397320213e-03 2.752283452302712111e-03 2.120056768567458636e-04 4.804358067220715865e-03 6.375833694704008750e-03 -2.233702664045887024e-03 -3.415624840565408861e-03 -1.185875869943057775e-03 4.516972537324526193e-03 -3.332317935650826787e-03 -5.494518365804220567e-03 -4.528681761193336774e-04 -1.059742618734403792e-03 2.163228770182364829e-04 -1.752818807293989728e-02 -2.765551018436193317e-02 -4.819791517492377428e-03 -3.478564139351532358e-02 -2.496232116732371303e-02 7.198324603667915871e-03 -3.085621689965479045e-02 -8.794835616290144764e-02 5.956789521451372194e-03 2.143768873941481138e-03 -1.875061417173948600e-02 -4.496474522689733813e-03 1.821662069251612408e-03 -7.873076083547758675e-03 -1.414686094395909213e-02 -2.480991044222909461e-02 1.422140210540628023e-02 -3.583373967018745748e-02 -7.051751619089999257e-02 -1.338639735944006579e-02 2.311487022436912661e-03 -1.262067899508399933e-02 -1.729666739164040928e-02 -1.851463200606642866e-03 1.055602250278634899e-02 -1.543322964582607114e-02 -7.264600797036030455e-02 -9.987616903166371060e-03 2.361853499292765682e-03 -1.207320776827751872e-02 -1.264021061244398163e-02 -1.125591238413932611e-02 3.656247459091751650e-03 -1.607892664545453043e-02 -6.250823018700769895e-02 -2.832114468801743765e-02 8.816097284179816350e-04 -3.050018467105306344e-02 -3.073244868936541446e-02 -2.804945625364095238e-03 -2.855996498336042539e-03 -3.089251141204554796e-02 -3.033886082364771822e-02 1.305121178925087002e-03 -2.818367521886061891e-02 -6.234322310507205839e-02 -1.607587541563581038e-02 3.292384153668733750e-03 -1.070404571651322259e-02 -1.219620578592882365e-02 -1.211940515692704751e-02 2.235807668933637027e-03 -1.033567535225060445e-02 -7.285986500142122013e-02 -1.495497754315400565e-02 1.065433337374388847e-02 -2.140162253858544136e-03 -1.730714616039566445e-02 -1.260852988844061474e-02 2.705983766385749913e-03 -1.327944890785820106e-02 -7.082072381206531986e-02 -3.544971897250647624e-02 1.424127697366461831e-02 -2.422915577790135319e-02 -1.409936398977158431e-02 -8.063017838460759604e-03 1.568725012529850618e-03 -4.450308356958021343e-03 -1.946840607580721180e-02 1.988712843358646058e-03 6.260394308082149056e-03 -8.789554947721765765e-02 -3.159068160285317256e-02 7.161404326109199227e-03 -2.508966484772387484e-02 -3.400622364188340963e-02 -4.970404394219460342e-03 -2.843795366853416051e-02 -1.807596104204680157e-02
-6.751584234513563487e-02 9.109845589299900293e-02 4.462318989776580674e-02 -4.022540821718999064e-03 -1.086766934997981243e-02 4.450118774100902952e-02 4.296828932216312930e-02 9.019946223270057517e-02 -5.771745021569819716e-03 -1.287719185758119710e-03 -2.823246985173411341e-02 -4.820156333975683660e-02 -5.786345738150346779e-02 -5.511248217918483794e-02 1.238129657764213245e-03 -1.300623195735725254e-03 7.664260831197593216e-02 3.817250027002283010e-04 -6.326592971580198045e-04 1.068133597396010888e-02 -1.053519114145841096e-01 -1.581980757275608081e-03 -5.677774197202854062e-02 -2.010799330710609685e-03 1.447018157205811340e-01 -7.426647645358730454e-02 -4.050336931528949330e-03 -3.931265338920767079e-03 -9.235664351151906537e-02 3.823800864244526754e-02 4.136350261455535443e-02 -8.518938628490368981e-02 2.161766743918448058e-02 -7.531783566793100182e-02 -5.654150296381262736e-02 -1.213453133566658572e-03 -2.738882314575108792e-03 1.367790818539405548e-03 -4.998664126082107834e-02 -9.344434668869047722e-02 -5.706048169048676989e-03 -4.940894968162005269e-02 -5.297222189135961795e-02 -1.068125332374331021e-01 -1.587979709625159412e-03 -2.279506787267492670e-04 6.300495450494041083e-03 -4.369244580944269679e-02 1.478288377740081538e-01 -5.582572438564084583e-02 -4.929534126461083965e-02 -2.657900487650720952e-03 -5.917967005548353115e-02 -2.058704009887656408e-03 -1.166300092466480759e-03 -1.022750224410313435e-01 4.296789073782696783e-02 -1.034329115949434025e-01 -1.597955282888674777e-01 -1.500014137538186187e-01 -1.066941776432954042e-01 -1.024344474771365088e-01 -5.708291590262358842e-04 -6.412205697733934680e-04 -1.886131126619070572e-03 2.290499747356834065e-03 -2.254745759835672953e-03 2.751404605697805109e-03 -1.158075847734716356e-03 -1.087150584336667213e-03 9.822401474594857039e-04 7.124259442172761270e-05 -6.115959790207892849e-04 1.611443437365106968e-03 -1.400489473242372360e-03 4.669010339873070898e-04 4.052501318829041313e-03 -1.011336892975113824e-03 2.660966892193249687e-03 1.127325897517879013e-03 -1.312297905347620686e-03 -2.946264670759527870e-03 3.673489644620311608e-04 1.927843464890665812e-02 3.552867623146624410e-02 -6.139688812086535087e-03 2.861761395724705601e-02 4.423859259157693347e-02 5.829461147925514043e-03 8.710294873971523993e-03 -3.624227850938882556e-02 -5.451932271392359586e-02 2.976456168161783697e-02 3.105384061058192018e-03 -2.250594146964325290e-02 -1.938695215373079789e-02 -3.711210240257723642e-02 -5.157135594101467865e-03 -5.874898317003282924e-03 4.592839179940820526e-03 -4.813909504697069797e-02 7.832758281034839926e-03 4.773820969816641724e-02 3.314856345862090409e-02 -3.534519255960504036e-02 -1.423968722113639306e-02 -1.787550787703944336e-02 -6.111963227843998647e-03 -1.331363366246213382e-02 -8.277777550295069287e-02 1.533624813412644804e-02 -6.897736157665172382e-03 6.209829783269363301e-02 6.003621596797124871e-02 -1.172563037371639368e-02 -9.550605229181774458e-03 -2.018050771701449669e-02 -3.129847255081552593e-02 -6.636777603169978501e-02 -2.293396439074390711e-02 -1.082310139277776551e-03 -1.624697850796199411e-02 5.706437654627372763e-02 5.691786805265904720e-02 -1.706440388263877686e-02 -1.832482502930718416e-03 -2.272240567209790618e-02 -6.641872657599531826e-02 -3.120300558953506900e-02 -1.960713782769877775e-02 -9.506483017908953434e-03 -1.175604672197667379e-02 5.980409420565475226e-02 6.214418887979104855e-02 -6.906331935039144131e-03 1.443088905753605634e-02 -8.289248972279970873e-02 -1.311239174198251117e-02 -5.666533372694323827e-03 -1.743348624820342807e-02 -1.371220343118632889e-02 -3.505381707678115882e-02 3.347633128275230574e-02 4.848884628725459028e-02 8.369330109283831462e-03 -4.895503334034008447e-02 4.531808710669073953e-03 -6.692610258511593087e-03 -5.512161795196307904e-03 -3.728003556084166781e-02 -1.928921335211556884e-02 -2.181214700924727704e-02 2.952431263997554005e-03 2.960255780673606146e-02 -5.497074110613346665e-02 -3.625604394516426104e-02 8.632196776616689327e-03 6.349949994369291466e-03 4.478879489408267578e-02 2.858905812572214503e-02 -6.103328140105264074e-03 3.507897441280305451e-02 1.941569428084082005e-02
-1.121692956960091553e-01 -2.611480607444527022e-02 -6.610567378318482623e-02 -7.560679937074840651e-02 -8.761435466140449213e-02 -6.265286506382115872e-02 -6.314480861461101158e-02 -1.368527214528688155e-02 -6.425785010484069172e-03 -3.395497942347153360e-03 -5.522407717114026504e-02 -1.541531153378774936e-02 -3.029642651271933010e-02 -2.365852452202836520e-02 4.338786279235120127e-03 -7.382750386853407371e-03 3.504178998197662320e-01 1.456166982628488617e-03 4.961965826967592100e-03 6.583895493100326395e-03 -4.049100555404704788e-02 5.460017389057124360e-03 -1.905727703130036255e-02 7.799669017749591687e-04 4.543471752173056794e-02 3.007766552740997468e-01 -5.690173872071943063e-03 2.600311840955676738e-03 -4.108453528386635245e-02 2.016701375058250478e-01 1.972417377550998996e-01 1.137425828307684350e-01 1.172215965379416608e-01 8.657097601100739725e-02 -6.250665867137490672e-02 -7.519252294211940107e-03 -1.576233677793964201e-04 3.569925984211584358e-01 -1.066726233898708347e-02 -6.482371990887481061e-02 -4.480538953169674321e-02 -1.770509700567748923e-02 -9.103689214361205748e-03 -6.411422188080766194e-02 6.737881231726076080e-03 -4.649481109279515571e-03 3.224623222377880349e-01 -5.153598448113941993e-02 3.657474927516986274e-02 -2.800364947286654999e-02 -9.054987962419243711e-03 8.891675144365361822e-04 -6.429209610211845949e-02 -6.026008816437737961e-03 3.839497290743639976e-04 -1.114121348827756403e-01 -6.582691169087508121e-02 -1.159360821848617051e-01 -1.389435618537817052e-01 -1.146742596923564783e-01 -1.000613866854679623e-01 -1.128685269289673443e-01 -7.342786780590893590e-03 -4.329755897058935182e-03 3.407459073905915511e-03 -2.757259730382254428e-03 6.359212866037924038e-03 -3.426608092100002362e-03 1.890032330841469495e-03 1.887767523791937063e-04 8.019075507392091524e-04 3.355549904891883418e-03 -3.549816904618676751e-03 -2.259140563324252022e-03 2.134011018846055686e-03 1.827262704225323525e-03 -1.209705908030505976e-03 1.843755199504161979e-03 -7.778526674378949402e-03 5.660326142413266322e-03 -3.988683451103239644e-03 3.116186519878468789e-03 4.805821708276414485e-05 6.825772152650433355e-02 -1.123296371447150555e-01 -5.495197979194903909e-02 -6.847943968143910265e-02 -5.683739166370592455e-02 -1.327404667144246528e-02 -9.532243244075516708e-02 -7.121203755869368046e-02 -1.204042512691354955e-01 -9.659702686240406733e-02 4.041981937855087387e-02 3.115964376176390271e-02 -2.445747701294238158e-02 -2.927860530315141638e-02 -3.828067895907687201e-02 2.411678710614904506e-02 -5.768519084694836985e-02 -1.505427219283246923e-02 1.678187242771431165e-02 -3.581098422797191622e-02 4.066473159897946582e-03 -3.893669020531512898e-02 -1.242793659360672681e-02 1.743659046640231788e-02 -1.719200111958306063e-02 4.448752923080267867e-03 5.398571407670469877e-03 1.911732293653235770e-02 -2.063676555706101673e-02 -6.570999566046406906e-03 1.673796062429087558e-02 -1.789473451027804793e-02 -2.639973447173465590e-02 -5.997916665749281062e-02 -2.221593107721318849e-02 -2.851465252490089849e-02 -8.486698866506894867e-02 4.247987811473177833e-02 8.538528897680043236e-03 4.547347727892475655e-03 4.561030190234031424e-03 8.986625902129296434e-03 4.214497362723020751e-02 -8.491397650825766030e-02 -2.837244990814619464e-02 -2.250973270758537328e-02 -5.968701480306061458e-02 -2.712757073845384337e-02 -1.786615141713618696e-02 1.701716565940009432e-02 -6.441842211405556830e-03 -2.074451633894619854e-02 1.904181631579411962e-02 4.773780111678220528e-03 4.664665097615259756e-03 -1.726784806979082126e-02 1.751411078448510128e-02 -1.168075669809225114e-02 -3.848992895663271713e-02 4.523233527222166733e-03 -3.601671996625228911e-02 1.675203885725584305e-02 -1.434088858719314782e-02 -5.764759941680821370e-02 2.412199713306614757e-02 -3.905160007309167736e-02 -2.941881945802971715e-02 -2.472847760689445354e-02 3.172445149849001389e-02 4.040176138369389741e-02 -9.663451363587917398e-02 -1.205928473791672284e-01 -7.116318110514956163e-02 -9.544306762257492860e-02 -1.238573889263872886e-02 -5.673647825961773000e-02 -6.840557912796388362e-02 -5.439567254088074899e-02 -1.125831021606546051e-01 6.843905766654154177e-02
-8.069706981127108825e-02 -5.167551622413304319e-02 -5.376596723661431626e-02 -3.814904832991421885e-02 -8.944584844096890863e-02 -6.083211072097196442e-02 -5.287128962638565355e-02 -5.117978611812604856e-02 5.986597239931354050e-03 -5.290960830523092290e-04 1.683362437280711832e-01 1.832248977342897100e-02 -3.369042850788792759e-02 -3.699502747842406403e-02 3.428450784336125982e-03 -2.650228109058726592e-03 3.713231812060007186e-01 2.014981902193535047e-03 -1.359026572111454723e-03 1.677413594144509523e-01 -1.191182035066408115e-02 -5.124700670403031962e-03 -3.959341512270678903e-02 -1.132958468125101932e-03 -2.252735209887452104e-03 3.604123629060036471e-01 -3.809105413073095824e-03 1.914842155873542956e-03 1.603547722643535456e-01 1.985657271436161997e-01 2.007934070576780361e-01 -6.199121838890154362e-02 -7.699566830478767054e-03 -3.568718645426795233e-02 -4.472112962189076640e-02 -2.773784467753249820e-03 2.415906237202101927e-03 -3.667075467127381971e-01 2.525913664419025123e-02 1.193681586489140321e-02 -2.380620192963103440e-02 2.231774405399116271e-02 2.086738545046091034e-02 -2.726987819891814324e-02 1.145365121844644151e-03 -1.788036428816608533e-03 -3.923815484651984598e-01 -1.421154598127659027e-02 -4.629886699728509233e-03 -3.870725730083772465e-02 1.715198536869871199e-02 -1.134084596232880606e-03 -4.101477177717923611e-02 1.270218236834945360e-03 -6.323908506943356697e-03 -5.941140688114752988e-02 -5.641023331376167349e-02 -5.655373231402359424e-02 -9.076763505850556080e-02 -3.557757866987964340e-02 -5.159417242143432558e-02 -5.272921593915264049e-02 6.424141268038247379e-03 2.153038790035327870e-03 -6.233908631258939896e-03 1.254037388757662207e-02 -4.892868775697003896e-03 2.614751836084361694e-03 -5.343052180155174243e-04 5.156652878921980619e-03 7.640608779692150375e-03 8.532506594720780033e-03 -3.649277458539371653e-03 -4.711544715207531563e-04 -4.161179142631387697e-03 -1.107269815595788957e-03 -4.519419490759792393e-03 -1.969360921013554346e-03 -8.468518105217622341e-03 -3.988465740766904480e-03 1.986580112912947164e-04 -4.385534640885406553e-04 -4.180959997468408694e-04 2.401473560663053633e-02 -1.753643224360812089e-02 -4.550982299000141257e-02 -3.839868868302209054e-02 -3.233729435415962777e-02 -3.425441534212875228e-02 -1.833702765037496449e-02 -1.011992211261372593e-01 -6.937602792672478702e-02 -8.880382059989019861e-03 -4.931253304470300386e-02 -1.430768222806384424e-02 -2.706875041712775848e-02 -2.246553645578716271e-02 -1.907701392589337963e-02 -5.130979368117041112e-02 3.881259155374888747e-02 -1.940377466082843574e-02 -4.447975594493823459e-02 -2.910934677134125598e-02 -1.003503880571137916e-02 -1.044554999079232507e-02 -2.320819333845879334e-03 -7.141855378488406320e-03 3.370490429922666509e-02 3.724593349321210847e-03 -4.204692937761646959e-02 1.013765386433274768e-02 3.562887337367388885e-02 -3.481042593579045108e-02 -1.304833889872608274e-02 -1.350350960330460454e-02 8.824156129288832778e-03 -1.063676739724341534e-02 -7.375931628556123276e-02 -3.209435455149169114e-02 3.057716283738176610e-02 -3.043976148679343463e-02 -1.438683669529208613e-02 -2.450652735144712158e-02 -2.421417206300841701e-02 -1.418419170612520222e-02 -3.019818929035117741e-02 3.021391100091781745e-02 -3.162973175077515853e-02 -7.356423008697182686e-02 -1.013622247766518721e-02 8.027077048505221191e-03 -1.398997198122581970e-02 -1.285918052512363338e-02 -3.500341814946023034e-02 3.606874973322249378e-02 1.027304869721751800e-02 -4.145400100249117814e-02 4.198416153610477590e-03 3.297218536805105599e-02 -7.436967539437918870e-03 -2.526863176188324199e-03 -1.087253897400838887e-02 -9.658253408295375264e-03 -2.921248609156328058e-02 -4.413135118655794886e-02 -1.853313802228518867e-02 3.835168014375366086e-02 -5.077275460730890089e-02 -1.913847436290077447e-02 -2.304197853258036985e-02 -2.723936385779904615e-02 -1.469497371103829601e-02 -4.927119477243913082e-02 -8.746741042263609864e-03 -6.947240333037783822e-02 -1.019077744779397499e-01 -1.807794525907073513e-02 -3.390388673851080226e-02 -3.261876449051448468e-02 -3.901479788423862366e-02 -4.504633186254781985e-02 -1.786584726938516415e-02 2.415627695033665395e-02
