-9.991661088460146098e-03 -9.918827661216059188e-03 4.911755414266361086e-04 -1.353278436870795909e-04 -3.675649041438733972e-04 -4.997515381080161467e-04 2.007015768528206887e-02 -6.615908268405757298e-05 3.468597164336381980e-04 -9.835167019554010015e-03 -1.002278009186691361e-02 9.778558116394090241e-03 -1.017941604106217118e-02 -2.963733433674056728e-02 -1.979788522889867203e-02 -9.773263861351317444e-03 1.001324164856593445e-02 -1.002262272506166361e-02 -4.396424994029124326e-04 -2.319693915063733016e-04 -5.226285427609861367e-05 1.011318936171467023e-02 1.027023713974014110e-02 1.002159751287639254e-02 1.032320394913177272e-02 -9.853907260275563545e-03
1.003782257034419728e-04 -9.692457229929363552e-03 -9.834773005754049793e-03 -9.709362269726889288e-03 -1.015069611953116867e-02 -3.227727941580143395e-04 -1.012812324967582792e-02 -3.638819217853785852e-04 -1.983741351545993399e-04 9.998990400080769864e-03 9.912923156484064122e-03 -1.026777024933055692e-02 -9.622303680821916658e-03 -1.251877959581038091e-04 -9.861013646255304549e-03 9.795090773133752551e-03 -9.519864038995979466e-03 9.835622444812099074e-03 -4.700148695979057176e-04 2.278062542876305781e-04 3.558430467316218287e-04 -1.015255717914193868e-02 -1.002704984228184985e-02 -1.020835120552304048e-02 -1.048944380094241589e-02 -5.238266754260291480e-05
-4.909415880287697209e-04 9.939697985941272143e-03 -1.905707820175749773e-04 2.582842355710948667e-04 -3.404854399520675784e-04 -1.998166118421212945e-02 -6.005057712462763542e-02 -3.986852370851323647e-04 -4.065974334711386189e-04 -4.944231707323415870e-04 3.047399880411259115e-02 -1.025083886286581349e-02 2.005349210663224038e-02 1.021659451150012075e-02 1.325022821238204529e-04 1.006811893903099449e-02 5.970105825944126837e-02 -2.493539964399803417e-04 4.691740689711339164e-04 2.099443377712708540e-04 -1.004386918973253079e-01 1.025931756231474729e-02 9.740738313559371697e-03 9.540342033898406918e-03 1.014994079033862753e-02 4.076088659728076269e-05
-2.978886723993397212e-02 3.027534129195227908e-02 -4.858654092522642770e-04 1.895231427269453151e-04 -2.047028234293431226e-04 4.112121036265493912e-04 -8.026550832383778922e-02 -1.564921186786901851e-04 2.065426995241870180e-04 -2.967400541730912805e-02 2.044295713415125726e-02 -1.988607590309469236e-02 -9.534698101316135474e-03 1.148769712364990786e-04 1.987732625773604850e-02 -3.006427041186475468e-02 -6.012254098763676613e-02 -1.035440783653980394e-02 -3.372403525991266439e-04 1.857860807344780083e-04 1.027435470041826449e-02 1.968671487366760106e-02 2.027921417811378094e-02 1.995758220406865929e-02 2.015851642816223269e-02 -2.970670823710432756e-02
2.658998855173226594e-05 9.935083178928074549e-03 -1.951232709871776952e-02 -1.984200796170136963e-02 -1.997119936770810206e-02 3.033429121659381167e-04 1.966557723816044628e-02 -4.138240564235552547e-04 -1.425566926699841773e-04 -1.014654551760809341e-02 1.028250079232132658e-04 -3.716808207998058278e-05 2.035024927055385097e-02 1.547970724749148791e-04 9.889343413909811031e-03 4.767437829125229648e-04 -3.257424524429342321e-05 -2.898987067193944532e-04 3.664659725440440048e-04 5.502086843894826821e-05 -4.668291052134666136e-04 -2.003751420133720318e-02 -2.026288638897475597e-02 -2.012066636712598472e-02 -1.985299569718149137e-02 3.628878078852787459e-04
3.465692384403609022e-04 -5.004758547737032937e-02 1.021880873008356241e-02 9.556694984647083613e-03 9.650786156903602697e-03 1.961937225637814391e-02 4.042145695786092396e-02 -3.382644747435431553e-04 4.755730288119269875e-04 -4.542267257528018881e-04 -1.698966454015949090e-01 -3.969875538781108409e-02 1.021813855085704562e-02 4.119105637129631681e-04 1.391508108208785316e-04 4.011849087935867586e-02 -1.198869635269104589e-01 -3.578868100138987918e-05 -2.475708180607492036e-04 3.170287237004754024e-05 1.048868760721277833e-02 1.001184466422212760e-02 1.002346671675674594e-02 9.571509983807194311e-03 1.021487957214214058e-02 9.986045776835754395e-03
-1.978874903176289224e-02 2.003461381071091132e-02 -3.566898240616785815e-04 3.973381219900765787e-04 3.949736163920258142e-04 -2.002519639115332012e-02 2.951913201692868416e-02 2.992865731478976392e-04 1.124092186106239209e-04 -1.047124795242142595e-02 -9.975033690953782894e-02 -2.822049675175620359e-04 1.984814402114024739e-02 9.606943803024405384e-03 1.958660288630604401e-02 -6.043574723243025359e-02 4.038628500782202174e-02 -2.857476130469838101e-05 -3.888793755280868319e-04 -3.187829904065013703e-04 9.918225891722471169e-03 1.140325440555159386e-04 3.792842174102049879e-04 1.127501627734405626e-04 -3.833412169398451447e-04 -3.016687041926120749e-02
3.035964209273846887e-04 -1.042638441718798416e-02 2.027771747292375984e-02 1.971175941100096821e-02 1.995719435300290223e-02 4.887460850251778427e-04 -1.021527307023542726e-02 -1.904971283149524701e-04 1.222243138210116176e-04 -2.001502271749160122e-02 9.709855157550588770e-03 -9.802634117847486284e-03 -1.046499207486367364e-02 -1.022475931560290659e-02 2.045867711720187471e-02 1.020983584411998268e-02 -1.039424680938790500e-02 -9.513193889592420210e-03 -4.005824406041588108e-04 1.078438804251996547e-04 -2.622762014816825554e-04 -2.021598246673753096e-02 -2.013562961146294489e-02 -2.012943935021928310e-02 -2.006284002715754550e-02 -4.998075095519888267e-04
-1.204310200960546362e-01 -7.967341004209069211e-02 -9.783387975946683870e-03 -9.944580405447748031e-03 -9.823332747673970203e-03 -9.985863744596009187e-03 8.982414652478395989e-02 2.358667760076455064e-04 -2.255324400542226839e-04 -1.986782010279475666e-02 6.027528386284306677e-02 -8.962613806029035013e-02 5.999284876125116767e-02 2.005849740022448702e-02 4.023030896695910935e-02 -4.000178050845380057e-02 1.495670262904916503e-01 -1.989177662871608257e-02 -4.240736113637642098e-04 3.901613038176150348e-04 9.731864449623187432e-03 -1.295578870117771592e-04 3.159356651926854831e-04 -3.887046347955096931e-04 -4.541263613562201290e-04 -5.006579098331790517e-02
-3.045474118956318504e-02 -3.003781011940549750e-02 1.010024919485013987e-02 9.609598340351204263e-03 1.037282126863238625e-02 -2.994527589136757734e-02 2.982959542045630907e-02 3.567995166574674431e-04 -2.217335200606221975e-04 -1.022182884731883193e-02 4.974177063712405256e-02 1.957398856591038155e-02 1.031520978933802603e-02 -1.011639518373069237e-02 2.416810088555834679e-04 -2.035068265461509318e-02 -9.950112650267667336e-02 -2.075444847317619082e-04 -2.332431422659360138e-04 4.003707464022723361e-04 -1.049524507897575155e-02 9.868843728005666574e-03 1.041763239973782749e-02 9.628962142263519999e-03 9.659301308859712457e-03 -2.975118303041821011e-02
